10 100
5 -0.115829 -0.209865 -0.117641 -0.191746 0.104531 -0.102909 0.053596 0.122186 0.260451 -0.168852 0.151497 0.155222 0.064005 -0.287546 0.013397 -0.267749 0.002157 -0.150558 -0.089429 -0.122442 -0.035571 0.090406 0.048274 0.163668 -0.019150 -0.155371 0.015381 -0.230540 0.023707 -0.123367 -0.037284 0.138506 -0.149797 -0.080046 0.156288 -0.182758 -0.061716 -0.003688 -0.067868 -0.278829 -0.147802 -0.120389 0.166902 0.050218 -0.247703 -0.097812 0.011850 -0.102955 0.178268 -0.041344 -0.163575 0.262447 -0.142645 -0.026378 0.111967 -0.060639 0.090878 0.078386 0.040712 -0.023505 0.133859 -0.038664 -0.085973 0.048636 -0.166131 0.039688 -0.005307 0.046321 -0.129267 0.016160 0.050470 0.042259 0.168954 -0.013567 0.062571 -0.192258 0.030736 -0.016724 -0.046318 -0.130219 -0.115474 0.029175 0.032171 -0.122477 -0.052696 -0.227390 -0.100489 0.002059 0.030855 0.121643 0.088756 0.125151 0.177323 0.045209 -0.039403 0.044792 0.042785 0.035062 0.217190 0.166089
9 -0.178710 -0.011035 -0.264213 -0.401197 -0.037665 -0.034782 -0.031648 0.272361 0.271377 -0.259370 0.121330 0.254943 0.093897 -0.720704 -0.166852 -0.359129 0.123292 0.079451 -0.387924 -0.058795 -0.298179 0.323857 0.370433 0.204024 -0.113721 -0.033104 -0.272135 -0.183653 0.102527 -0.068517 0.158576 0.414170 -0.424875 -0.194795 0.129272 -0.137740 0.006259 -0.246926 -0.127441 0.067050 -0.253841 -0.227413 0.141355 0.244033 -0.087230 -0.200691 0.036377 0.048215 -0.081434 -0.331372 -0.057994 0.044260 -0.187893 0.054604 0.102144 0.069436 0.031757 0.044686 -0.054835 0.310399 -0.105057 0.187473 -0.226589 0.045495 0.005468 0.112967 0.150972 0.171777 0.067192 0.236230 0.181672 0.309091 0.324460 -0.067135 0.118104 -0.086832 -0.098522 0.094412 0.062502 0.044368 0.238615 0.083886 -0.207697 -0.302098 -0.155219 0.172578 -0.424026 -0.009222 -0.190854 0.182650 -0.041273 0.194265 0.225696 -0.041638 -0.093871 -0.029582 0.159623 0.471804 -0.068240 0.252577
1 0.044167 -0.299987 0.001239 -0.324798 -0.266498 0.106778 -0.153187 0.067450 0.297882 0.112475 -0.118907 0.000313 0.305935 0.007105 0.273907 0.061683 0.114075 -0.013207 0.020087 -0.222182 0.108670 -0.387634 0.065518 0.046579 -0.157125 -0.081120 0.162457 -0.229196 -0.383579 -0.419077 0.145880 0.417296 0.163364 -0.345565 0.069738 -0.087007 -0.218274 -0.163859 0.119538 -0.654459 -0.525321 0.015983 0.054717 0.055390 -0.078467 0.218209 -0.123473 -0.022735 0.393217 0.298684 -0.517032 0.360670 -0.198490 0.057847 -0.156026 0.112360 -0.124892 0.219003 -0.151731 0.150091 0.374923 -0.318527 -0.073329 0.029167 -0.206135 -0.054363 -0.134294 -0.099414 -0.365130 0.094778 -0.259950 -0.032814 0.230631 0.240468 -0.059135 -0.089461 -0.002408 0.026103 -0.020960 -0.260273 -0.021689 -0.090963 0.368315 0.280506 -0.253947 -0.323715 -0.187235 -0.153095 0.143549 0.176800 0.182461 0.163601 0.244703 -0.108498 0.135678 0.055612 0.222925 -0.297722 0.141248 -0.098755
2 0.037725 0.041404 0.173338 -0.297611 -0.285169 0.042867 -0.124261 0.337568 -0.209713 0.092392 -0.381970 -0.040307 0.348396 -0.347491 -0.203778 -0.012873 0.119864 0.326435 -0.037122 -0.182967 -0.038181 -0.109139 0.465761 -0.041430 -0.221165 0.108196 -0.109659 0.277415 0.154759 0.020400 0.273345 0.236177 -0.222711 0.034603 -0.409916 0.156370 -0.209550 -0.444022 0.221081 -0.151329 -0.232371 0.047078 0.234755 0.130999 0.001037 -0.130520 -0.177093 0.072678 0.132791 0.026936 -0.044570 -0.228783 -0.194640 0.544423 -0.543341 0.191946 -0.058659 0.466319 -0.473242 0.756458 -0.122909 0.103779 -0.321228 -0.180888 -0.044466 0.187582 -0.006100 0.053841 -0.402140 0.063137 -0.019656 -0.036717 0.477499 0.184763 -0.192919 0.219272 0.251563 -0.003859 0.330423 -0.101798 0.057682 -0.188309 -0.177586 -0.049329 0.081765 0.254137 -0.373143 -0.191826 0.181780 -0.052645 0.125669 0.343093 0.097361 -0.356762 -0.252253 0.004903 0.072322 -0.120328 -0.234946 0.197342
4 0.116929 0.356025 -0.155751 0.130658 -0.032618 -0.056743 -0.351827 0.538798 0.394823 -0.077401 0.030404 0.116716 0.311222 -0.347385 -0.006883 0.114862 0.100272 -0.038932 0.058631 0.209159 0.017499 -0.145752 0.021623 -0.344492 0.316916 0.206984 -0.406580 0.072911 0.076518 -0.077665 0.009444 0.130402 -0.025174 -0.388387 -0.205942 -0.061033 0.098405 -0.073757 -0.101733 0.201450 -0.296393 -0.199105 0.360093 0.394619 0.266094 -0.216076 -0.021056 -0.138531 -0.051332 -0.207118 0.028387 -0.102652 -0.013283 0.358214 -0.100542 0.331759 0.040996 -0.218216 0.282041 -0.066199 0.484622 -0.098979 0.019050 0.036753 0.349214 0.272017 -0.290550 0.390114 0.035469 -0.073132 0.103057 0.243790 0.151260 -0.199905 0.232966 0.019476 0.101267 0.521739 -0.166319 0.355430 0.338835 -0.173343 -0.143768 0.116839 0.047154 -0.160790 0.115204 -0.228404 -0.032349 0.299763 -0.026434 -0.201019 -0.029633 0.001311 0.017589 -0.023981 0.155166 -0.350616 -0.291852 -0.093358
7 0.333325 -0.049218 -0.214280 0.097642 -0.465706 0.511924 0.257980 0.116595 -0.091571 0.129242 0.000931 0.085540 -0.257983 -0.442373 0.404870 -0.130854 0.061522 0.117494 -0.196788 0.020930 -0.417784 -0.041482 0.165463 -0.294962 0.088661 0.002992 -0.264603 -0.355669 -0.256683 0.367573 0.436685 0.128939 -0.087527 -0.121596 0.079594 0.076753 0.411622 -0.074513 -0.229166 0.189596 -0.329289 0.216476 -0.065289 0.133118 -0.138479 0.416038 0.120087 -0.218638 -0.070177 0.034223 -0.144377 -0.140062 -0.011979 0.113935 0.054137 -0.068678 -0.266388 -0.332143 0.076898 -0.051852 -0.126258 0.237126 0.067194 0.143208 0.257277 -0.354249 0.142026 -0.063405 0.023172 -0.244167 -0.067989 0.280177 -0.332386 0.297474 0.265049 0.238001 -0.329445 0.343596 -0.110986 0.134178 0.237889 0.249187 -0.174307 0.330496 -0.090360 0.332655 -0.017000 0.014759 -0.351497 -0.083574 0.276934 0.054142 0.270793 0.036602 -0.066573 -0.022161 0.251039 -0.013066 -0.357051 -0.302994
0 -0.149895 0.014049 0.015230 -0.204631 -0.051121 -0.058988 -0.293144 -0.134349 -0.037569 0.035297 0.247944 0.112982 0.101308 0.311461 0.059856 -0.102478 0.125943 0.102967 0.005106 0.319120 -0.056717 0.047619 -0.084806 -0.129771 -0.358265 0.339091 0.015258 0.087719 -0.158821 -0.277452 -0.079445 0.133719 0.022513 0.034916 0.223634 -0.224091 0.462501 0.155193 0.396959 0.343126 0.001452 -0.476853 -0.331846 0.432939 0.164078 0.012730 -0.288110 -0.172849 -0.640243 -0.173945 -0.090665 -0.359333 0.145954 -0.210347 -0.216205 -0.039425 -0.256377 0.350159 -0.438406 -0.108885 -0.119396 -0.571861 0.040540 0.222951 0.204920 -0.064563 0.111376 -0.386984 -0.072424 0.071840 -0.316195 0.172356 0.448269 -0.296021 0.124818 -0.232021 -0.068983 -0.120826 -0.220505 0.107522 0.411744 -0.621099 -0.037855 0.068161 -0.379720 0.307639 0.290736 -0.032881 0.320710 -0.060490 -0.214076 -0.060772 -0.177235 -0.117048 -0.207723 -0.142024 -0.479019 -0.038013 0.192527 -0.049239
3 -0.233165 0.073328 0.327984 0.020464 -0.026764 -0.019995 0.040592 -0.109761 -0.000584 0.005081 -0.174380 -0.385124 -0.244492 -0.083553 -0.067340 0.089193 0.469076 -0.231034 0.051917 -0.097732 0.002330 -0.071003 -0.195085 0.462082 0.543828 -0.048560 -0.051409 0.493617 0.093027 0.027308 -0.283252 0.057375 -0.133060 0.077746 -0.330726 -0.249007 -0.268934 -0.067983 0.233133 0.170858 -0.056411 -0.244100 -0.083634 0.325943 0.268801 0.041516 0.182519 0.149076 -0.169584 0.401105 0.147370 0.076684 -0.105565 0.208027 -0.406761 0.112493 -0.210548 -0.105187 -0.018869 0.451801 -0.203365 -0.074826 -0.003198 0.351924 -0.043706 -0.098079 0.410504 0.463263 0.291910 -0.217031 0.051429 -0.005699 -0.441374 0.186121 -0.039882 -0.067360 0.199605 -0.133060 0.375976 -0.251174 0.098656 0.244725 -0.040213 -0.006568 -0.156694 -0.067359 -0.163015 0.163938 -0.211300 0.067345 -0.040060 -0.101751 -0.092721 0.019706 -0.172634 0.220443 -0.163477 -0.039139 0.105237 -0.044038
6 0.001858 0.024776 0.114361 0.186809 0.094468 0.065783 0.111854 0.190330 -0.374323 -0.114917 0.399254 -0.019593 -0.054123 -0.222184 0.078327 -0.221643 -0.074070 -0.230053 -0.013763 -0.234374 -0.214226 -0.111383 -0.074113 -0.156845 -0.010264 -0.257526 0.106290 -0.310351 0.241421 0.256883 0.099867 -0.412136 -0.034355 0.144523 0.169363 -0.041816 0.334021 0.449697 -0.144715 -0.268738 0.018332 -0.044292 0.361713 -0.055630 -0.484697 -0.011414 0.157000 -0.576292 -0.018567 0.093688 0.177689 -0.113642 -0.397298 -0.080767 0.121948 -0.325533 0.040164 0.181342 -0.015899 -0.155616 0.195822 0.208960 0.000719 0.033041 0.049386 -0.188407 -0.325027 -0.157989 -0.335876 -0.230996 0.167800 0.044078 0.093833 0.239464 0.275373 -0.103029 0.339313 0.195865 -0.065969 0.158903 -0.291257 0.091816 0.144180 0.089597 0.449196 -0.085161 0.289767 -0.175661 0.035926 -0.075773 -0.025946 0.357155 -0.013953 0.039591 -0.134041 0.223781 -0.161892 0.021962 0.356707 -0.069718
8 0.268570 -0.345845 -0.190558 0.237146 0.139059 -0.135074 0.398008 0.031735 0.280338 0.076528 -0.255949 0.301306 -0.170890 0.092162 0.108077 -0.255375 -0.314128 0.034860 0.348147 0.370451 0.255391 0.302903 -0.061476 -0.240974 0.179063 0.196586 -0.141496 0.119469 -0.002215 0.296353 -0.201066 -0.158745 -0.111570 0.362585 -0.222487 -0.051759 0.076750 -0.217104 0.046927 0.290729 0.255752 0.197985 -0.073289 0.024251 -0.149688 -0.034413 -0.245222 0.008230 0.219599 -0.146439 -0.195235 0.060274 0.645711 0.369355 -0.124100 -0.041854 0.126605 -0.210552 0.146878 -0.413196 -0.229090 -0.229979 0.096523 -0.019573 -0.088961 0.126939 0.343807 -0.003356 -0.044719 -0.465214 -0.203245 -0.250283 -0.201686 -0.388712 -0.146413 0.086792 -0.275433 -0.214841 -0.246134 -0.237740 -0.177062 -0.303447 -0.589381 -0.075218 -0.121654 -0.064451 0.336488 0.293140 0.281661 -0.243886 0.518370 -0.409985 0.097364 0.090818 -0.306552 -0.286150 -0.130522 -0.744439 -0.255959 0.239510
